{"layers": [{"weights": [[1381.1268095377147, 1657.3388168642593, 460.39205803171745, 551.621486002489, 1013.4926867829788, 643.8171921285444, 644.947327449327, 91.45852858194581, 1011.9395619449306], [1370.909138551931, 1645.4470223839448, 457.64012846240547, 549.170938371124, 1005.7098914526905, 640.4241250421774, 640.1378490496162, 91.7109357988568, 1005.3248766845068], [922.6017386554624, 1107.4586681379792, 307.282215581844, 368.8901938071583, 676.6606994750485, 430.49694311745276, 431.1693288859302, 61.45404086306697, 676.1549896742113], [599.4983193882273, 719.0942496899379, 200.71253004328472, 240.01008717682856, 439.30585883747835, 280.1600401048946, 280.29742953285927, 39.664709411911396, 438.51262180481996], [220.50108482831862, 265.3631663408014, 73.211344728091, 89.19873042464278, 162.72117424913688, 102.50732928486975, 103.8247795103143, 14.792556891970024, 161.96175352452724], [543.0264905916721, 651.9910263819102, 181.61185573810923, 217.03725537870952, 399.34658999633393, 253.5587632975369, 252.70563499805772, 36.48721599727667, 398.7370280093153], [83.9465115606901, 100.70528392413772, 27.605649859256488, 33.785285283059686, 60.77860607519431, 40.28130360201396, 39.731812467221445, 6.1348352158675405, 61.75844178939995], [1307.1567911726977, 1569.9196390282514, 435.64113778475024, 522.5380217985177, 959.2261742962622, 609.3493392818864, 610.9087488623267, 86.46043899218563, 959.5104628100979], [981.6180332275476, 1179.2623081806123, 326.5485024724798, 393.3778301565085, 720.5678378704727, 457.2847004515555, 458.69906664297946, 66.10905252445399, 720.3045685479442]], "biases": [2671.136175556, 2652.364020297526, 1782.72447042896, 1158.295443662727, 426.3358030353035, 1050.6540957511395, 162.1924763340147, 2527.840924829153, 1900.0066757670975]}, {"weights": [[-0.977053911327306, 0.44190266141501877, 0.11724180582163686, 0.7138575729831567, -0.21801808652350127, -0.019572775678032756, -0.3514802336266876, 0.926803129593942, 0.8481057737108384], [0.4150948277995616, -0.4528028804591359, 0.8587328266274217, -0.5983839893927331, 0.019228347170045717, 0.9148416269720024, -0.7196989703474826, 0.9575576213965661, 0.9240820862416874], [-0.3925458823048053, 0.5331508563747865, 0.6695274147437374, -0.605885987188129, 0.963837645417943, 0.21918932439679148, -0.8480620100445062, 0.01706795291969042, -0.6478154925580496], [-0.6646339754764633, -0.9455392333476121, 0.014840105889070095, 0.9119386656893018, -0.438011475913555, 0.7660716269486986, -0.49251097008352246, 0.14471112188947172, -0.21935569312138542], [-0.5913591878790755, 0.41557618831703536, -0.13101768243611106, -0.5954879354913671, 0.13496856115242306, -0.41259848219519396, -0.046122928322147864, -0.2015851415799312, 0.009210096730203177], [-0.4324904358792327, -0.38552195178441995, -0.5454225387481129, 0.041051064639701866, 0.47535880020882526, -0.5356187541493319, -0.09416249060882897, 0.9827550456925473, 0.6402287875989738], [0.6008560370854897, 0.13237093933925892, -0.83791849634222, 0.11115300633774183, -1.0538277712132544, -1.0316819895229121, 0.7666569673706325, -0.691134976002607, -1.007208828562874], [-0.8242633192502189, -0.07572518280227541, 0.8379728511193627, -0.6213664668975507, 0.8533589134932168, 0.8419544574243231, 0.47368742033850897, 0.317702586414553, 0.5293053597961974], [0.9191527060336703, 0.02006335074528936, -0.8346591350016961, -0.38332334313265604, -0.8944633602888007, 0.7163597711498548, -0.2539413322750029, 0.8794457540286439, -0.25540322916325886]], "biases": [0.9706857921250083, 0.04841749624861533, 0.5573632282551939, 0.5135283095961158, -0.33596755627145075, -0.7121880516848114, 0.1807825132839966, -0.4133349485472508, 0.7253716461266115]}, {"weights": [[0.22643611616898793, -0.8610229817908083, -0.7790580672925583, 0.7548678402704279, 0.24005106494217243, -0.8885410057869592, -0.8987552922667325, 0.36961697279925054, -0.8023259951753965], [-0.6491471415323944, 0.6153031766408765, -0.06687695418510789, -0.8448937912982213, -0.9585360400060465, -0.5570397559774447, 0.8337957654411411, -0.7330189184362446, 0.8788697658216494], [-0.23623838825099522, -0.9612633238511125, -0.2520236193604314, -0.7168322618432045, 0.6578811479087802, 0.18570942522604006, 0.564281974620183, 0.6918251686729293, 0.39600580274109975], [0.38327993306310126, -0.03584477757869044, 0.6730658360388883, 0.23204937123587185, -0.9258439890587858, -0.9869289321118838, 0.03973419063985693, -0.23937953848401394, -0.3994582112516345], [0.031825711308036325, 0.2659832331765777, -0.04509968336574134, -0.37158221555331716, 0.8764013411875354, -0.6921507310135351, 0.7049928451847813, 0.2783933697544632, 0.7115748515542009], [0.37792031011469923, -0.11114693704825213, -0.9790689699474246, 0.36513549769815634, -0.09513896511644986, -0.9563185373092029, 0.3412706008202035, -0.4530348254181331, 0.47047609338617474], [0.5213797050530138, 0.17026781418551926, -0.8858194568032469, 0.4212061384513836, -0.38448037790054174, 0.2856307779398465, 0.10870623576295833, 0.7261672872208244, -1.0314512125818636], [0.36259902403601807, -0.9933495077126199, -0.8807935418386837, -0.7311106386873036, 0.5524774535588391, 0.8765152174833322, -0.45747369945211097, -0.2605205598202629, 0.4880656936168538], [-0.5433696288878431, -0.4651063788887811, -0.7133414830067936, -0.5393987716482199, 0.1188086541831852, 0.33710400235032634, -0.7545947189801561, -0.9601038708756504, -0.34155619721763913]], "biases": [0.33491825559871863, -0.6730555974664741, -0.05631317892318478, 0.22702934243978276, -0.860322258494785, -0.906473510488135, -0.9587868243470933, 0.5618402470958237, -0.6308805421952635]}]}